5.126144746810592994e-06,1.234884247976135831e-04,1.444166398193946711e-04,4.239714367890152591e-04,4.019397381878438342e-04,4.292157514787660311e-04,3.516363130525838345e-05,1.598514563454663776e-04,1.510752274624141379e-04,-2.065516344936717957e-03,-3.104210430607775174e-03,1.516772172882816568e-03,1.941365444755168909e-03,1.459192445545860342e-05,-3.919298426974386390e-04,1.421667727364298505e-03,-8.266560619543865483e-04,-9.377380818046145844e-03,1.635082807397472172e-03,2.523819555338812758e-03,4.339470862835261358e-03,6.660100843772957064e-04,3.861168268807908116e-03,1.206279124074509119e-03,-9.132509910489419128e-04,5.909211768219199560e-04,2.520056435991141746e-03,-4.284995732126129463e-04,7.886153566523572758e-04,2.845738193613726614e-03,-3.956485815499248028e-03,4.070771286115161232e-04,5.991258134337702594e-04,1.464272778370194874e-03,6.119084500503858305e-03,-2.413697928165306136e-03,-3.407291269928266380e-04,8.529994681697413740e-04,-3.709394294480061619e-04,-3.405097134098256095e-03,1.332593336648103897e-03,2.297345887331840066e-03,-1.068175746189414972e-02,-6.567698905292046474e-03,-8.755457096839072695e-03
8.177580874469386329e-05,3.236154549392366436e-03,3.349638501700814841e-03,7.993030495642946751e-03,8.090321578980258846e-03,3.668402763628621135e-03,2.850965700484663339e-03,4.489326347036825572e-03,4.597219740357611634e-03,-1.092829510561015884e-02,1.433397482913716624e-02,1.181375449371331252e-02,-1.085243465547278737e-03,2.671702887198529677e-03,2.917043195145179336e-03,-8.119332060919229668e-03,-1.529833482683762985e-02,-1.485328038745520676e-02,-1.195674021772979295e-02,4.081958726927254616e-03,-3.862474485981063407e-03,2.243404456765617921e-02,1.310033841816319461e-02,9.303936229717729711e-03,4.792742178421279496e-03,-8.214892974869932724e-03,-4.639856109342088697e-03,-6.085000584290826790e-03,8.348932455759893248e-03,-9.951592035385093947e-07,3.896569789213967083e-03,4.517615177898825010e-03,-9.508807871445904784e-04,-1.003361908754956539e-02,4.354079733899513492e-03,-2.106100443926012342e-03,6.372458056083472183e-03,3.844838963616086392e-03,-3.584871582843105267e-03,-1.325681257319515950e-02,-3.696866583140523432e-04,-4.608383099115355430e-04,-1.087017647359910313e-02,1.542691119959918589e-02,-6.765695378323820577e-03
-1.085320895555802583e-06,-6.840014389034275173e-05,-6.754375195178344640e-05,-7.183979961607550265e-05,-6.413696108235189671e-05,-4.085935146301596094e-05,-5.681016667875822486e-05,-2.301787212746410851e-05,-2.640606841354966423e-05,-1.641802348360996231e-03,1.950631565411339906e-04,1.587322807510378124e-04,1.211512704421306534e-03,3.547538829608390160e-04,-3.173638266517108731e-04,6.951160757146187825e-04,7.138911006719000961e-04,2.172414498109336066e-04,8.614292167252226564e-04,2.058598125675785342e-03,-1.180127132371221893e-04,9.065261752904795606e-04,4.038625717016965664e-04,-2.176687748245160884e-04,-2.715620911207761341e-03,-1.061179523810587772e-03,8.531456513713068590e-04,1.441508908750922802e-03,-2.016469096919355905e-04,-7.863800454013792057e-05,-9.240956993138702610e-04,1.790753378302080380e-03,1.148291722860361047e-03,6.463447743144510758e-04,6.460282786629554380e-04,-3.673435461168556102e-03,7.113745054459658665e-04,-7.046086605424150499e-04,-5.505269388906281879e-04,-2.875927006732529375e-03,9.984261634159961873e-04,1.676075842894193639e-03,-1.393113726467023333e-03,-9.495890199478017974e-04,-2.208872604824089429e-03
8.214185558797137601e-07,1.337915386786186047e-04,3.924684090358891817e-05,5.397081224834884838e-05,9.585808478459422442e-05,1.178994317855395916e-04,3.566482182879047853e-06,4.086567496077770979e-06,2.092058599993063743e-05,-1.579563495534542367e-02,-1.392049320216714060e-03,8.877382000865678691e-03,-1.655853696928394217e-03,7.716308367801143556e-03,-1.666354833411467324e-03,5.055786284426922600e-03,1.101642907905145234e-02,-9.480618570536105891e-03,9.522392026653316022e-03,6.890745595168942111e-03,6.957992141705191935e-04,3.351983137499950447e-03,6.294554469870844438e-03,-4.946693266108904497e-04,-3.682302822831414694e-03,-1.894954060082479482e-03,-2.019516701929333947e-03,6.965622450541700608e-03,4.198242599339701924e-04,-1.328901114893519132e-03,-5.739211288303657128e-03,2.506133396808580584e-03,-2.185107754308584333e-04,2.981547785091410692e-04,5.001094036878193407e-03,-4.663802497463203321e-03,3.908164738692164290e-03,-1.556202073585417510e-03,2.553327756009973141e-03,-1.444443799490101148e-02,2.956966411863223756e-03,3.524254905359502314e-03,-1.275454897083747735e-02,-8.804804825272308233e-03,-1.105835763014995608e-02
-4.847174388587321926e-05,-2.468343243082925763e-03,-2.484577690370434397e-03,-4.048330606593794449e-03,-4.095790737455547344e-03,-2.300605711676588592e-03,-2.059354172663755041e-03,-1.637752285579193671e-03,-1.722241940956002358e-03,-1.038731815664380338e-02,4.844349163621601909e-03,1.425508741128990670e-03,1.244883469340138382e-02,1.303441402339971730e-02,2.956941210323883566e-03,-1.681333723215298198e-02,-5.868916907844161888e-03,-1.263091446043760994e-02,6.300389300674063761e-03,9.965203636272188317e-03,-2.341079259277042360e-03,-2.983134464372743083e-03,-5.614424423395931833e-03,-2.993739023603598712e-03,-8.182795954692402909e-03,3.535007137748472951e-03,4.587417542344065374e-03,4.211819806435463005e-03,9.748567177244738934e-04,9.404897802842766830e-03,-8.287647948043260632e-03,-8.980170315560481384e-03,-3.201734812443875330e-04,8.970782149537066819e-03,2.900117635401727560e-03,-8.133607006170809686e-03,-9.776827820153781781e-03,8.540602084450392428e-03,1.313445073901556813e-02,-3.018416244165095155e-03,6.857443077129993757e-03,1.130121179854979424e-03,-4.063169538484517548e-03,1.553055737142953343e-05,-1.668700429983247663e-02
-2.700434745334856764e-05,-9.725098860982084618e-04,-9.745009060906685300e-04,-2.251988265032077354e-03,-2.103820913021081217e-03,-1.348442096339919375e-03,-1.205290770438970137e-03,-2.214940242317282003e-03,-2.186767381964406336e-03,-4.051387721078119133e-03,9.440712199769624863e-03,4.037028918618804953e-03,-8.245482921253568164e-04,-9.802952515934363568e-04,-5.587735771259247364e-03,-1.041502632065208905e-03,1.909838028526180027e-04,-1.191399323874835041e-02,4.385809375718108596e-03,1.789273568636543801e-04,-5.882815004866628374e-03,-2.073494130987652961e-03,4.354050448027852599e-03,5.184320368442092881e-03,-7.531160363260442844e-03,-7.215414589277790482e-03,-3.207179258654639913e-03,1.037116075519609916e-02,9.511403516195223590e-03,4.375720220191078522e-03,-3.548427072998614797e-03,7.201586816134285425e-03,3.241997170914215440e-03,9.980476447650635588e-03,5.837180360603400411e-04,-4.399633035005590456e-03,-1.148746952330749992e-02,5.404078937634596361e-03,3.857968269814841724e-03,-9.392890921640945079e-03,5.231304370819678771e-03,1.135461190498679050e-03,-1.058184414008121396e-02,-2.248414118677321237e-03,-6.071683951369469777e-03
-6.657883305510946291e-07,-1.042180329833319036e-05,-1.838051583290423718e-06,-4.699654680718618187e-05,-5.048465952760254101e-05,-1.651927407512965919e-05,-5.318478128805940596e-05,-2.006240333736255139e-05,-2.308048119359612760e-05,-2.088352985639570312e-03,-2.012947899813843401e-03,-6.721401605559692346e-04,1.691152212264566512e-04,3.533551762702689643e-04,2.962768874318669719e-04,1.859415833547287946e-04,-3.035886399923891973e-04,-2.179750129427253033e-03,2.138592274206247584e-04,1.189498629905847305e-03,5.954520276256075346e-04,1.618906966780581189e-03,3.218069303372987102e-05,-3.020875371126033456e-04,-3.322480024157547785e-05,-3.409273451376401308e-04,-1.262435915199049748e-04,-1.042253534298252137e-04,2.054964219159735334e-03,1.608988956591151558e-03,-1.420905634052487898e-03,-5.104115524391804500e-04,-9.719300295172224064e-04,7.700791291786072751e-04,7.024689568203454316e-04,-4.501291154170292456e-04,4.464374173128794515e-04,-2.445512348775817093e-04,-5.717315237361096213e-04,-3.565394305794129977e-03,4.276520398159095772e-03,3.781191502554590977e-03,-3.113657679710839839e-03,-1.913280772618088273e-03,-1.392395388980716391e-03
1.004151652891395887e-06,4.966560677244127848e-05,4.780601189418837540e-05,1.055554644678962880e-04,1.196496376237417622e-04,-2.040432354782612437e-05,8.617229775874822790e-05,-1.509686837871259494e-06,-8.586415881390646065e-07,-5.238002552676934015e-03,-3.258890705659704679e-03,9.222765437223907643e-04,1.481005804664064411e-03,1.396319276885096697e-03,-3.484529148383780622e-03,-2.108693288931528902e-03,-1.655033018870051987e-03,-2.405080246876213461e-03,2.186370796690810091e-03,5.213041125220878660e-03,3.965210772546513460e-04,-2.915267444177188118e-03,-1.419680715607044745e-03,-1.144132502277403225e-03,-2.303430778135617547e-03,-2.204030850884860452e-04,-5.008100411014261392e-03,5.286376157873946303e-03,-1.746370313000362518e-03,-2.686510591105970187e-03,-2.861477140621192065e-03,-3.645714621906260416e-03,6.337455972265718107e-03,-3.402751069706597999e-03,-3.850590455707372101e-03,-5.591731604095630248e-03,-4.848851478860871146e-04,1.364643425518817467e-03,4.330300380833781320e-04,-2.017135071274152574e-03,-2.684320005707901188e-03,-1.622213191181270855e-03,-1.690086250036881539e-03,-1.047228945454858158e-03,-9.519695002224154564e-04
-5.209090742263098074e-06,-2.477725421765611326e-04,-2.442689335274578774e-04,-4.483882570014854452e-04,-4.658796768447246795e-04,-4.350028683514528430e-04,-2.660203765587034871e-05,-3.480251951608470261e-05,-4.406900056265161773e-05,-4.451213258970227078e-03,-1.909652894610501962e-03,1.205505168624063659e-03,-2.421152356452102355e-04,7.907126019755756491e-03,-1.842203995350730379e-03,-5.820196524328578522e-03,-1.752739867119627523e-03,-6.625961314148680684e-03,1.341626601733738201e-03,4.719139892382965065e-03,6.895036180365891713e-03,1.379045825131033345e-03,-3.939070490003969936e-03,-1.540038871460938218e-03,-3.252281215686690961e-05,1.183312043120981778e-03,-2.328190876021320101e-03,5.782909875372082252e-04,3.179890772952902525e-03,2.035058214798427488e-03,-1.801820950159896493e-03,-3.691841703224868921e-03,-1.370177725785848722e-03,2.243915471706003657e-03,1.347125161561324447e-03,-2.356654558135239542e-03,2.316033645711679332e-03,3.667241068723008091e-03,1.197623758138518200e-03,-3.106383564617835446e-03,-3.349342967737039753e-03,-1.230147144078297698e-03,-6.995095214031456406e-03,-4.347876201551959668e-03,-6.961050891506339981e-03
-1.400900692197417942e-06,8.219289794826926347e-07,-1.347075463433871601e-05,-1.212738276863138714e-04,-1.484090445391502084e-04,-2.510463362074757406e-05,-1.377754757794432967e-04,-6.553681195491038664e-06,2.437165943336942883e-06,-5.814299948353602015e-04,-2.395172493855182976e-03,8.649149647081339539e-04,-2.373999634980800480e-03,1.056685475334019240e-03,5.837159825956650047e-03,-3.720167760355348480e-03,-2.957676742261788286e-03,-1.312861604883064012e-03,2.058182737793451747e-03,-5.681917384957499125e-04,1.357257203795403898e-03,4.418768870419895883e-03,-3.296040841087076803e-03,-2.639287051108066707e-03,-1.357266154229928943e-03,-1.640913632800511943e-04,1.849065528876085284e-03,-5.657765561165529122e-04,-1.561048291569653722e-04,3.158634741908616581e-03,5.732726702111418972e-04,-1.897735392889583934e-03,1.164320584225042197e-03,9.250541428583121178e-04,3.868142716200239500e-03,-2.906368645330366287e-03,-1.279852452394206891e-03,-2.676554600829773346e-03,-3.137836742458779971e-03,-4.683989977957338756e-03,3.851608621982832714e-03,6.582815968179690606e-03,-4.678967836051702717e-03,-4.989660374924403084e-03,-5.729818657719955993e-03
5.809032604364212594e-08,5.625404534952402254e-05,3.765309954443310785e-05,5.740738309003608756e-05,5.390175693462055092e-05,3.843967842464764420e-06,-3.378629855140961912e-05,3.053130579818283321e-05,2.374353322550224512e-05,-5.468557762984782751e-03,-1.810705549955828400e-03,1.163370151118223780e-03,6.383031001799321057e-03,1.466023591833050341e-03,5.301332512693699740e-03,3.392589285357505637e-04,-5.634235451954043225e-03,-1.301853394143485162e-03,3.052880833401545695e-03,9.192672752539300662e-03,-2.234980547913435886e-04,4.803943929266713680e-03,4.457371793504962161e-03,-1.980537312241261588e-03,3.394806256847252582e-05,-2.071574365707193766e-03,7.328917808363448558e-04,7.785729937711765138e-04,-7.379312662911099129e-03,-3.835980499973238493e-04,-6.666625798667474845e-03,-2.713469484492212012e-03,5.311188194964066266e-04,-6.035653051618977520e-03,1.031893258720408685e-03,-2.515037787682167670e-03,-2.795645985846050875e-03,1.626985067075350025e-02,5.984064544747874290e-03,-1.199583521495415327e-02,-9.931704418111831148e-03,-1.281865442025201902e-03,-8.433623097730720553e-03,-4.990603763565385972e-03,-9.878140478031484720e-03
-1.768401607080710698e-08,-2.931332649763297763e-06,-5.603602425371288236e-06,3.487030246324979069e-06,1.975667423705023299e-06,-1.144277189928066201e-06,-1.799167592104114997e-06,6.367465312215408077e-06,4.576201895779723587e-06,-2.872247135420825026e-04,-2.820372190897538363e-04,5.809375550976605030e-05,-3.084205682386582806e-04,-2.396994583954106426e-04,-2.526158206111003726e-04,3.178966401805524700e-04,2.382042241344937863e-04,-3.358973848953568375e-04,-5.685229202399457848e-04,-6.257025065439970760e-04,-2.088840828646706656e-04,-7.501462401172944664e-04,-1.135030222730417016e-04,-2.176036908724458645e-04,-6.721778231402062093e-04,6.039105985417747742e-04,-2.007341879632820031e-04,8.550191379911757173e-04,6.274908572262760990e-05,-6.698831777898791424e-05,1.736437751711894626e-04,-9.929507398211385538e-05,5.146902341425095735e-04,9.036491154184348677e-04,5.734597714851077986e-04,-1.254747089661804307e-03,7.817147450595930995e-04,4.338795354861203681e-04,4.052253146192409216e-04,-1.110946885262637743e-03,8.477561872897986526e-04,5.313210233734000755e-04,-9.870211964744864553e-04,-9.166508585632748103e-04,-1.349218561193737649e-03
-7.291598763639309344e-08,-1.777178163145531685e-06,-2.943808068881408642e-06,-4.832345298473696485e-06,-5.600867653204988222e-06,-5.647242102184298651e-06,-4.782913570309418037e-06,-3.491704930851057891e-06,-3.120147349387751052e-06,-2.871567298043177269e-04,-3.485987023769583919e-04,1.432585643421822007e-04,8.606967596870069735e-05,7.105916085078565168e-05,-2.746694547839241248e-04,-7.374178158460683327e-05,-4.943912865433194441e-05,-4.515788027632238475e-04,-2.955790872656095778e-05,-1.716163946835487267e-05,-8.525531104037793880e-05,-2.866684444545560722e-04,-2.238736710339461582e-04,-1.757190558045786122e-04,-3.007664335854428857e-04,-2.515282013214028482e-04,-5.603524000957803633e-05,-4.441675078017068572e-04,2.176650444901885215e-04,3.793036592014558967e-04,-5.220870750406208160e-04,-2.493201577954432479e-04,-4.501120294595834436e-04,1.308807256045287125e-04,6.636774541451994150e-05,-1.062829003443418834e-04,-5.678214594205300853e-04,2.862800612103226484e-04,3.185684852636240191e-04,-2.740021691688534285e-04,-6.164702497253173952e-04,-6.350358791740134783e-04,1.594176522129358349e-04,2.482619074391474246e-04,1.308357052758423020e-04
-2.123655489617016260e-08,1.417597316940607423e-06,1.140381840996405463e-07,2.468602480796728996e-06,-1.088894327765667364e-07,5.576259958603353101e-07,-6.183678470124122318e-06,5.205191225240357863e-06,5.366512956205821574e-06,-1.247998479982649058e-04,-2.542201100041175115e-04,3.428161043592506440e-04,2.437365444800997452e-04,2.453526359670170636e-04,-3.369662322082901521e-04,6.148575632726129177e-04,6.422681784236747987e-04,-5.382009274413196692e-04,1.549323980588548531e-04,1.735089094379658049e-04,2.322713178696674224e-05,-2.587432438910302278e-04,4.333939131841865961e-04,6.001597130142801708e-04,-9.183298578664158803e-04,-6.785080058173323771e-04,1.451624616676848927e-06,1.938617465038823973e-04,1.066422331538345201e-03,9.104510411002465255e-04,-8.798078715051874891e-04,-2.539458865662588783e-04,3.527644803260711391e-05,7.523701394473475846e-04,4.855825168388287609e-04,-9.391685717322366313e-05,-1.871169477365078456e-04,7.548102398866669187e-04,7.959782335706394206e-04,-1.114452365905410072e-03,1.633815839748879099e-04,9.243608805913643329e-05,-2.180889313607052311e-03,-1.586886548016030150e-03,-1.563109352916082885e-03
-1.819582608093148189e-07,-2.526033912182071239e-06,-4.406065672521722357e-06,-2.766044552974423427e-06,-1.089494455071203168e-05,-2.806362923431861237e-06,-1.753063749064488405e-05,-2.717225800150585938e-06,6.649888855616350698e-06,-9.992143117039965761e-05,-7.656591711010808090e-05,2.553412769759938103e-04,-1.066858124481445940e-04,1.871592221450072520e-04,1.190561596867712509e-03,1.985947733504419969e-04,8.733066890927940196e-04,-4.844069732439301593e-04,3.849755450732069133e-04,-1.603820809709920474e-04,2.071642074638760996e-04,5.313105205042225210e-04,-2.766509308112747667e-04,8.012094612864798177e-04,-9.431124486784702105e-04,-7.179249188499367768e-04,-3.243366999984341557e-04,1.024457435727905682e-03,1.377553232761544524e-03,9.782504040850871756e-04,-9.327658517429100390e-04,-3.902426651363877078e-04,-3.730814817713212837e-04,1.046188656957572198e-04,9.369073538581787952e-05,-7.575862577292456941e-04,1.520530401136618468e-03,3.871825143821313112e-04,3.683586052701856963e-04,-2.664966272919028906e-03,2.438004686479605437e-04,1.502672197286709357e-03,-1.621135273358522994e-03,-8.310962292433845015e-04,-1.019839809933960643e-03
2.370274202947290101e-06,9.746552912454817502e-05,2.111746326549513299e-04,2.983669526506221208e-04,2.489543758739971445e-04,1.572970297677027157e-04,2.828581165834076223e-05,1.138118630065594833e-04,1.086898202855901199e-04,-3.890860029279242550e-03,2.221894700131426658e-03,-2.612750953012232553e-03,1.050318790694284091e-03,1.951233893590730625e-03,4.438795831278788255e-04,-2.735207827689479371e-03,3.870568496795358769e-03,7.974978288179602115e-04,1.587474465006059226e-03,1.313303000932724207e-03,-1.938027069087754767e-03,-2.255620222351747538e-03,-1.044776467771456850e-03,-4.456494122628794352e-04,2.821885346373798238e-03,2.200541301882571760e-03,-8.344369317877494210e-03,-2.128167433590686611e-03,9.048965694388460971e-04,7.603259237668629801e-04,-4.666628942006285398e-03,7.679203736108175180e-03,1.168416865583749454e-03,1.532972928726049691e-03,-3.430606900809120112e-03,-1.342818204866822037e-03,8.965034543516781258e-04,1.836281957895302946e-03,4.366580720481501830e-03,-9.067520364358475386e-04,3.338697002605702175e-04,4.524370289038534207e-03,-7.874008398245608414e-03,3.325110462545998293e-04,-3.376501652539723279e-03
9.730162899520643008e-06,3.180803558560391250e-04,3.377763311010679764e-04,8.737498385872325855e-04,8.178246065372292775e-04,4.473652764934582526e-04,4.258909470345599883e-04,9.466332033979883405e-04,8.719231680993613960e-04,-1.093498428498110731e-03,4.514340146147622691e-04,5.503221549790999166e-03,-6.356531808816178429e-03,-1.456958752092485029e-03,3.806239969350834300e-03,5.078346292017524169e-04,-2.982694704661782085e-04,-6.112814275098567458e-03,5.428185660801812876e-03,-4.279563852114275958e-04,1.773383387876496884e-03,2.841658621031102790e-03,-4.101572362932752805e-03,-2.291324194973692538e-03,-2.901373215777563411e-03,1.746992398448433088e-05,9.278331833959384961e-03,-1.077856846269222360e-02,-1.468281380813355992e-03,1.975957598048341726e-03,1.610337993651152124e-03,-3.572975898912711997e-03,1.059189080813171353e-03,-3.409746749514299541e-03,3.784500134683270282e-03,-7.802295145994734421e-03,-5.642184357797415568e-03,4.963876549817570691e-03,-6.701216395342264424e-04,-1.025538769981566888e-03,9.408770564332018943e-03,7.340636468723915576e-04,-5.562341631117295737e-03,6.902634404857652117e-03,-1.956025741231085750e-03
-1.012530050053165715e-06,-4.406153211122598924e-05,-4.953974268784105771e-05,-8.121230762656568114e-05,-6.940755625521007391e-05,-5.714371865188595725e-05,-3.285006030450098182e-05,-3.970188113365348613e-05,-4.516678689825104852e-05,-1.248097922759130920e-03,-3.033517727277676782e-03,1.382268283802678488e-03,-1.006670822899552410e-03,1.648981136079445773e-03,2.792394631106127120e-03,4.726509366226537128e-06,2.300270778793184114e-03,8.317470312732246551e-04,3.939732151652555032e-04,1.217052402606173160e-03,-2.612359456782656307e-05,-2.751683484577239439e-03,2.139507796746889946e-03,-1.192601078320034216e-03,-3.609887053277684881e-04,-1.919498366449799275e-03,-2.911093406856307759e-05,2.239237184435092023e-03,1.515981407988599731e-03,1.500903885349159049e-03,-2.217962507538769664e-03,3.628772648757911268e-03,-1.796943039267228422e-03,1.982424212906147131e-03,1.103826930770052800e-05,-2.634068408122614089e-03,-2.518388359558569427e-03,6.394283534631888845e-04,-1.492887400604828857e-03,-7.990425685099491028e-04,7.612515368357350518e-04,6.703762000309114108e-04,-1.931901165411478109e-03,-4.418576265785518174e-03,1.723582608380054212e-03
-4.683491047218917047e-08,-2.279381348814717197e-06,-2.418822328198763194e-06,-3.560115291746117551e-06,-2.637924966007374177e-06,-3.934491366050609796e-06,-3.950428338554391955e-06,-1.515942301179020403e-06,-2.605631951002620776e-06,-4.229679828725411994e-05,-4.527651069496600310e-05,-1.176644915028312633e-04,-6.970910642443911901e-05,6.203879553413557419e-05,-3.985946235200267334e-04,5.088977786064430081e-04,3.615629117103454082e-04,-6.530737127474257496e-05,-1.209036747429774922e-04,-9.570869800206987935e-05,5.973107676445436599e-05,-4.115180119156054781e-04,4.781898102864854359e-04,3.173178729575156388e-04,-3.277613556014619405e-04,-4.295138752346873163e-04,-3.903312606267462593e-04,-1.838595406678187325e-04,4.568899547150671306e-05,-8.472456152717794311e-05,-3.155556733640731831e-04,-2.619365313677967082e-04,-1.471364112667985255e-04,-2.008069463676489393e-06,-6.283517703555549017e-05,-3.346319298989775914e-04,-2.792690072464929689e-04,3.129507213474714373e-04,1.576212616855507387e-04,-4.467499428303663795e-04,-5.432559874926581487e-04,-5.672773675988999247e-04,9.969787459700905029e-05,4.814511185499356039e-06,-1.148822386345592047e-04
-9.217848895627906802e-05,1.567634295887023962e-04,-1.813727834513698383e-03,-5.673180237358768814e-03,-4.705244991990117573e-03,-1.017168297085817297e-02,-7.105105346862039756e-04,-1.000366268780011414e-03,4.434449947561980190e-04,1.786279673441403676e-02,-1.932140958440223266e-02,-6.483984499000692257e-03,1.627887849444079396e-02,-1.239216071821111660e-02,2.041927435249088745e-03,-4.105351015019739931e-03,-8.816505868722556219e-03,6.524547806287340828e-04,3.413432822393530977e-03,-9.076545652323974450e-03,5.106081871130991288e-03,-1.742976944624017276e-03,1.361389784045898346e-02,9.809935753906390971e-04,-1.045795150122138910e-02,6.183851815831651125e-03,6.022875853876437022e-03,9.392217501881898467e-03,1.919078216767656705e-02,-1.410006776685643684e-02,2.838615857587956873e-03,-3.874473921661214168e-03,-1.099391095935311341e-02,-1.095739145998849209e-02,6.948281447131216763e-04,5.545789422028491090e-05,9.072981320529270588e-03,-6.221344923008313189e-03,1.249923949547729340e-02,-1.026314878927888329e-03,-1.293294302220347400e-02,-2.396833010932347598e-03,-8.316836283314374759e-03,2.729509334091073137e-03,1.112710020089317407e-03
-2.849239040831565623e-06,-3.064527089119904431e-04,-2.904924278788657984e-04,-1.293216002944192931e-04,-2.118661007814770026e-04,-2.861835001770588632e-04,-9.816497425551805786e-06,1.082690117554973083e-04,1.224364229702175171e-04,-3.764542748836302924e-03,2.240805280440372107e-03,5.070992160776955845e-03,-2.694594323107823292e-04,6.116058162704206616e-03,-2.843978769948347744e-03,-1.035189917068856172e-02,-7.820452945849347718e-04,-4.998290757599295649e-03,1.456784182105297452e-03,-8.616437869665377700e-04,3.361841363910054829e-03,3.000551137353564730e-05,-1.380351131553356247e-03,7.053599683051753203e-04,-8.266927786660728181e-03,3.642820683895788914e-04,3.903832960544408211e-03,1.509931511590385887e-03,9.330076045761935555e-03,1.024972845024493644e-02,6.217263161751923270e-04,3.358489393966232559e-03,-5.717237768344957984e-03,-4.548136392242930017e-04,-1.174555424654207501e-02,-8.602338466633390954e-03,6.512354852249082216e-04,6.497250753294706114e-04,8.192349803114023013e-03,-4.163564702058784178e-03,5.393655727358935906e-03,5.782108178918336089e-03,-6.586120330769415325e-03,6.621894926251386919e-03,-1.009171198385690887e-02
4.680124078329481290e-07,1.495096390102547526e-05,1.315533453078432346e-05,2.046851881493989703e-05,2.032936809406581891e-05,2.091681831043067552e-05,4.114183629218053030e-05,8.154418096798315648e-06,1.701064737535884491e-06,-1.060638820180978721e-03,-9.094788160995464707e-04,6.853567453612207988e-04,1.984764971615256540e-04,1.246198270809839191e-03,1.003147369427307561e-03,1.862971879622603484e-04,-6.281839864721082498e-04,-8.712989350684796283e-04,3.410358450386069638e-04,1.962884030028137392e-04,1.104539924849068291e-03,6.649160876600022918e-04,1.308218157172152778e-04,-6.969989239126593746e-04,-1.533725362345730349e-03,-2.925350167210643290e-04,1.489203775885385595e-03,-3.731357601670839269e-04,2.644758574079241376e-04,-2.648100628533339544e-04,-1.889756694730205036e-03,7.322730504308463213e-05,-4.931168603688241853e-04,3.091660630055156683e-05,-2.070945938690386414e-04,-1.723671152657558223e-03,1.110985024224273076e-03,-8.907289828337867140e-04,-8.140952065652318562e-04,1.243477351933767279e-03,4.913866125068715174e-04,-1.098449794788090145e-04,-6.042704576427754140e-04,-6.049258380205961398e-04,-8.778378179310984122e-04
-7.731530270515322471e-07,-5.410247652619750070e-05,-5.537750571559588695e-05,-6.144344177219676043e-05,-6.023784190582473838e-05,-6.009249654002354830e-05,-6.300380646638268285e-06,-5.686718609689450947e-05,-5.277179740699098308e-05,-3.775820751924739097e-03,1.727688122261936046e-03,2.148315899379278984e-03,2.089957195543145404e-03,-1.655110280821738830e-05,-7.287362854737260490e-04,1.562015632963648874e-03,1.246353863241740200e-03,-2.128586967083446763e-03,1.550228395788437897e-03,2.396250827758039138e-03,1.302759316842783198e-04,-1.464833153948671648e-04,2.562382632243141939e-04,4.240763750893632796e-04,-2.146510714495383342e-03,-2.089433655644905036e-03,1.231991484772578188e-03,-1.626373994807570761e-04,1.655407533575636869e-04,1.148408921583376520e-03,-2.771002607658243008e-03,1.294586533556581860e-03,-2.826183738854869663e-04,6.478277943744011275e-04,1.126131189648411609e-03,-2.278678785852299160e-03,-8.671183010087528907e-05,6.308092205655693599e-04,-3.665679061127563219e-04,-5.687147721855965012e-04,2.495508110192897790e-04,-2.857399091298864135e-04,-1.199361379792717591e-03,-7.343116873220645758e-04,-1.633077258866492618e-03
-9.594612781055972207e-05,-9.644253538377081398e-04,-1.761589161433469060e-03,-4.772218132231860824e-03,-5.408918902957366402e-03,-7.716060564486895874e-03,-2.887273778508986973e-03,-3.999891498331323465e-03,-4.427032396160377956e-03,-6.624182717003713507e-03,2.846159684964918134e-03,1.452901673484595499e-03,4.449081984174074397e-03,-1.123234349352798117e-02,-1.311149219842411111e-02,1.629595832919614965e-03,1.515215773148123959e-02,-7.118610696351031566e-03,1.760283228652084059e-02,-4.596377751035649051e-03,4.728890071462098742e-03,1.235514991002108209e-02,-6.483043024940518366e-03,-1.503970708407029698e-02,-5.156882932364294063e-03,7.322899372354397651e-04,7.987854499704759303e-03,-6.695976465888161568e-03,-4.203087241611279151e-04,-5.369365734129490780e-03,-6.176055395208180157e-03,-6.070331129327847033e-03,1.340180550678661368e-03,9.021307785934573609e-03,1.422986841750160068e-02,-7.630866764345950286e-04,-1.621841135297349013e-03,-1.696987529397274777e-03,5.979078547344540868e-03,4.672998506678516565e-04,-1.872496512795248074e-03,1.064550137173773427e-02,-7.039914706276687723e-03,9.429708206811935819e-03,-1.693311925471586640e-02
-6.989887516443557075e-06,-4.545850787062693382e-04,-3.664176494110516391e-04,-5.134212583189640003e-04,-5.141767112664776592e-04,-1.516135611284461036e-04,-3.745665285893919343e-04,-1.681317257541558490e-04,-1.544034319974745548e-04,-1.182380728766364088e-04,3.825817034578434753e-03,5.718050071112152537e-04,2.940516950642106490e-03,-5.573227995797876491e-03,9.684188037529353798e-04,5.257855911621494953e-03,-3.599133831331138064e-03,-4.211017584093518402e-03,-1.013749186101856352e-03,1.258785038265039687e-03,1.583510943275143103e-03,-3.330518761677867239e-03,-2.203259033424962397e-03,1.478381507494251233e-03,-3.556218133913671697e-03,1.801108624160972522e-03,3.170952069852708138e-03,3.290249732911983572e-03,6.796096129690458194e-04,4.845841007065134105e-03,-4.741739817851247686e-03,2.678869688614424552e-03,1.273840057207099559e-03,-2.065202665426314668e-03,3.624181515037336754e-03,-2.814458634266828446e-03,-1.518292891351619546e-03,1.588907564122579458e-03,1.846459871188673449e-03,-9.276759785090055773e-04,4.355184409715555545e-03,-7.411555246358516279e-03,2.116114009088621017e-03,-8.332967062909289041e-03,-2.533778966804342732e-03
7.171324628505098593e-08,6.903581987858417331e-06,1.378250534783697251e-05,5.852758769753329862e-06,3.017519100705260968e-06,2.896961445950388089e-06,-9.115737093532370804e-06,-7.238590606763708328e-09,-4.693853206385442286e-06,7.699921373857406654e-05,1.255742178760038252e-03,1.418497042020585262e-04,-1.991244595542608967e-04,-6.216691184320353785e-04,-1.343480671377717288e-03,-4.373049380242487020e-05,-1.076481468220922546e-03,2.365581410677628903e-03,6.930334974876919008e-04,7.465348002581348019e-04,5.128128901548687293e-04,-1.269362857085702114e-03,-6.153867353847109639e-05,-8.585706942917001013e-04,-1.705171000709163531e-03,4.634905242979350326e-04,-6.358714229868121185e-04,-5.957252009119235652e-04,-6.251788239174801368e-04,-8.624701709894220039e-04,-1.120695269641480262e-03,-6.985213705354484772e-04,-1.272518494637622354e-03,1.632961375405457148e-04,-3.982987689323136556e-04,-1.359815812563330319e-03,-1.345675540865468901e-03,-2.586397250806278243e-04,-1.130320903018584367e-03,-4.093371960718959843e-04,-8.895779643005895579e-05,-1.335167062994322437e-04,-4.143588290368786222e-04,-1.936800606976168298e-04,-6.995931936198524458e-04
3.242625935553219920e-06,1.361247090935141036e-04,1.708718739761786300e-04,2.719530793170273010e-04,2.903469960813066038e-04,2.305070243308259220e-04,1.511702018858671625e-05,3.833693692936423732e-04,3.734773716314801896e-04,-6.598265008224012476e-03,-5.086687409850528191e-04,-2.927828035509002363e-03,6.624169207427301961e-04,-2.553887555939812109e-05,-3.675112215607656096e-04,5.837078492127172231e-03,3.966470454185182237e-03,-2.629300061445508183e-03,-1.980329726808143908e-03,4.200706758130183863e-03,-3.640562069425747017e-04,3.871870530716623772e-03,1.478875129568968556e-03,-2.486504128862340127e-03,4.189441453632075825e-03,9.131389016619024471e-04,4.680328500671599541e-04,-9.813991981721642555e-03,-3.591189336424988835e-03,-1.035141604602301656e-03,-5.200775779875323537e-03,1.369065308903778680e-03,1.121339757390817657e-03,1.525292795739847202e-03,3.304186198327151332e-03,-5.071521668027190698e-03,-3.680617838857379569e-03,2.473896070840521551e-03,3.721243053915324409e-03,1.908752114868247072e-04,5.668912205431647297e-03,2.370134884247701839e-03,-1.908045048347550496e-03,-1.160662801084717029e-03,-1.599698628243286912e-03
-8.513334661830180519e-07,-5.931555805860875430e-05,-6.323992202068039507e-05,-7.125561910969618895e-05,-6.858294637352937593e-05,-5.984042952062183150e-05,-1.328866504660796041e-05,-2.327354323046890085e-05,-2.439661888622306996e-05,-6.931384411003577812e-04,-3.660408073890533860e-04,1.558387990930616045e-03,1.786464687531704723e-03,4.517664032843973971e-04,-9.804064956796490916e-04,1.929440552191915821e-03,8.834801756804592935e-04,-1.697318174960933722e-03,5.068533215215188618e-04,9.165065938829391199e-04,4.798332868721628367e-05,-3.669968056530087375e-04,1.203628073279348724e-03,2.320605985234167794e-05,-1.245618265319955661e-03,-5.397970091019341134e-04,3.761708349038362775e-04,-2.953075121612598239e-04,-5.979505621183128132e-04,4.829637903343385460e-04,-4.102797006786847709e-04,7.361567122814914555e-04,-3.851781532402238049e-04,-1.609386511230526747e-04,3.545923641922430771e-04,-2.653853150559788883e-03,6.033432458928949128e-04,1.600232688356806278e-03,1.916421918564502639e-03,-1.288764237484984771e-03,9.874912848700971384e-05,-5.272043661682194191e-04,-2.988229761375332371e-03,-1.603844576631661576e-03,-4.105523257202799668e-03
-4.203177258232785122e-06,-1.213128242646448131e-04,-1.148264979577913762e-04,-3.569798159434392232e-04,-3.613755984712262322e-04,-3.365168232204563499e-04,-4.418216544227775486e-05,-1.263040716608011967e-04,-1.657869553876339019e-04,-1.311704993504560430e-03,-1.825253430465521940e-03,-3.946238045877394247e-03,-1.221376523292184470e-03,5.720271683482287123e-03,6.316301498690605164e-04,-2.515170206719778614e-03,9.563075729453456714e-04,-4.788980846956459800e-03,-2.106483203521174012e-03,-9.059410770932451503e-04,3.232499359258563551e-04,2.774145447576574649e-04,4.117127430570811583e-03,4.542523596459024232e-03,-1.116243162742276522e-03,-2.863165824466186275e-03,3.425617743461625104e-04,-2.999539739324492754e-04,6.527757024615901682e-03,1.946913084633397498e-03,1.748198238238629415e-03,2.364964988182889465e-03,-9.231311215581449467e-04,2.202598113539135181e-03,2.114747967477913042e-03,-3.558679460675521090e-03,1.221428792581711296e-03,5.082792652844653376e-03,-1.522058303326037426e-03,-3.453097079833770261e-03,-5.412077125757448672e-04,-1.270744180966222993e-03,-7.181971650021483355e-03,-4.316532815743621618e-03,-5.297330073710916111e-03
1.643254122132923846e-06,8.773687818847220672e-05,9.588537086151914166e-05,1.449792124600837013e-04,1.391602459286694806e-04,8.906287374496133359e-05,6.732299870703039528e-05,-2.163188794744493873e-05,-2.425789071082426030e-06,-3.948330880265834078e-03,-3.290228862631399548e-03,2.023721745612568242e-03,1.057195867572613445e-04,1.457345463168482165e-03,3.537440250239795667e-03,-1.924890095117869591e-03,7.388359086790901665e-04,-3.679926093445332665e-03,2.549586883336466426e-03,4.796561680087412134e-04,2.719107856514924211e-03,2.025196415794068821e-03,-1.892874897527906065e-03,3.533708769171016906e-04,9.573749166273739239e-04,-4.363904661645703252e-05,2.950731782215269827e-03,-1.155818641851370310e-03,-4.386935145119557657e-03,-3.816950634675166532e-04,-1.717973370868464220e-03,2.831048444316752299e-03,-1.584900578994349624e-03,-4.195047292509131859e-03,6.335359400790579586e-04,-5.152204130939357085e-03,-3.149987461082379858e-05,-3.951253008738687782e-03,-5.979725204904365581e-04,-1.223893609703433072e-04,-1.463806997390867818e-03,-3.286791325038162896e-03,-8.483017252928318512e-04,-8.640336518185514443e-04,-1.956626405572117061e-03
-2.322759442961104002e-07,-1.319164169082734057e-05,-1.291386009208095073e-05,-1.842905807383812315e-05,-1.796558899795861280e-05,-1.283997532705832908e-05,-8.096044779370565041e-06,-1.443354187652799527e-05,-1.496005308508260529e-05,-7.301853369354455300e-04,1.531416706015600437e-04,-1.235474677575928873e-04,1.537144642674487032e-04,-3.560990435892692860e-05,-3.685313133695589929e-04,-9.470830916935243744e-06,6.433697311899864600e-04,-6.375423058688144910e-04,6.828484752180861332e-04,5.800770654216848028e-04,-5.424019334415038605e-04,3.264435111877785132e-04,1.280585477261223046e-03,6.777875766899472141e-04,-1.387403667361110761e-03,-6.238034939101058792e-04,8.551607250970348151e-05,-4.068085818721504910e-04,3.560848178892289466e-04,8.461609906026443901e-04,-7.350806331215704046e-04,3.121855647654126929e-04,-3.680138786057226153e-04,1.045309467127008857e-03,7.080008725895934338e-04,-1.927036017848461884e-03,7.285673242216117766e-05,-4.428930823343487332e-04,-6.405223949284865378e-04,-1.241160674435937486e-03,-7.032469660677925305e-04,-8.637943395607363848e-04,-9.772153695933536170e-05,7.357668451696748081e-04,-7.809751894453997390e-04
-3.303449825389506517e-07,-8.374036794425365605e-06,-1.820464498931892292e-05,-3.008505278160720052e-05,-2.794241207754619309e-05,-1.121116412131513701e-05,-5.545560485286378895e-06,-2.263320442940482104e-06,-8.692018625883036158e-06,-1.727470499723250891e-03,7.783805277707624886e-04,4.549695835789020542e-04,9.037583619454655180e-04,2.859275079999853953e-04,1.737785612161549104e-05,-6.178777938481491835e-04,5.936701493205256974e-04,-7.267132750284358228e-04,3.234466735823183603e-04,7.605098941681341001e-04,1.166508875061808136e-04,-3.981159837769750773e-04,1.157518302722298793e-03,4.655289119006605659e-05,-1.307218562543173033e-03,-8.386969668043261529e-04,7.386596490579047701e-04,-7.797390977091243436e-05,1.453233935329684753e-03,8.771733959518487542e-04,-8.222607100752890455e-04,8.923335436937897876e-04,7.101262363499084732e-05,2.117848487713546064e-03,8.437878853222876251e-04,-2.049425829458072657e-03,-1.578399437169714082e-04,6.323005089027741157e-04,-3.095957773100152565e-04,-1.122570080595459378e-03,7.027077010780957028e-05,-4.044166038681341522e-04,-3.669243536567766764e-03,4.330224547710913655e-04,-1.968609335564360657e-03
2.583819816520180184e-08,2.966039802574234026e-05,1.472047755660894748e-05,-1.148631027838410472e-07,5.573907177189590747e-06,4.861989008998410583e-06,-5.271392662306114217e-06,7.095863108210172285e-06,8.306895798721545269e-06,2.343623465132406523e-03,-6.447266256152096170e-03,7.160649745578652687e-04,2.263781113765034585e-03,-8.693155685796113519e-05,8.162729613550427123e-05,-4.258716936127719677e-03,1.589120143722006157e-03,-2.790924199706816371e-03,1.950300887413520569e-03,1.124190523671123238e-04,3.593407275328832501e-03,2.132299555324732639e-03,3.107012148202986483e-03,6.500531430283682747e-05,-1.897164768163833552e-03,-1.425042811534029492e-03,2.545779130099376985e-04,-1.277490775689225574e-03,1.609773664639156535e-03,1.177371162777774739e-03,-1.142475565773980401e-03,9.471083729259187692e-04,-7.027524746185308474e-04,1.441341381582274305e-03,9.362965128759141373e-04,-1.508269512313724012e-03,-6.162922256965011484e-04,-1.147873609115226999e-03,1.383715590079742435e-03,-1.765744813618189395e-03,-5.046513393043511396e-05,1.750961902808691238e-04,-1.371445775388923207e-03,2.008140110907094978e-03,-4.046729203119892211e-03
